encog,BasicNetwork,java,3.4.0,1,1754564369576
[BASIC]
[BASIC:PARAMS]
[BASIC:NETWORK]
beginTraining=0
connectionLimit=0
contextTargetOffset=0,0,0
contextTargetSize=0,0,0
endTraining=2
hasContext=f
inputCount=61
layerCounts=2,81,62
layerFeedCounts=2,80,61
layerContextCount=0,0,0
layerIndex=0,2,83
output=0,0,0,0,0,0,0,0,0,0,0,0,0,0,0,0,0,0,0,0,0,0,0,0,0,0,0,0,0,0,0,0,0,0,0,0,0,0,0,0,0,0,0,0,0,0,0,0,0,0,0,0,0,0,0,0,0,0,0,0,0,0,0,0,0,0,0,0,0,0,0,0,0,0,0,0,0,0,0,0,0,0,1,0,0,0,0,0,0,0,0,0,0,0,0,0,0,0,0,0,0,0,0,0,0,0,0,0,0,0,0,0,0,0,0,0,0,0,0,0,0,0,0,0,0,0,0,0,0,0,0,0,0,0,0,0,0,0,0,0,0,0,0,0,1
outputCount=2
weightIndex=0,162,5122
weights=##0
##double#5122
   0.4560716073,-0.2479011855,-0.4913139985,0.9192095798,0.4865958289,-0.4178045169,0.842040964,0.7483242252,-0.5586420458,-0.4395827568,0.207109495,0.0906512801,-0.3198330212,0.7110443961,-0.3628561963,-0.4635140239,-0.3195270562,0.2185086696,-0.7417424034,-0.5337222909,-0.5530646445,-0.6983417806,-0.160933743,0.8343875919,1.0755364977,0.1763699914,0.6660212319,0.0326458212,1.0340357505,0.0180485108,-0.3489012882,0.7953673645,0.2828803384,-0.6862077033,0.8518727328,0.5906715367,0.7032820247,0.0914012559,-0.3167262208,-0.5225543766,0.2472434897,-1.0425371278,-0.5610907494,0.5147864273,-0.1106963544,-0.0189962968,0.3940065287,0.9944938231,0.3745297628,0.9532856724,-0.1577455641,-0.3612586816,0.3760755721,-0.3766456866,-0.369180316,0.7431735247,-1.2366092418,-0.1265491613,0.2803860252,0.3312965207,-0.3359365947,0.0148958817,0.3985515327,-0.0020604012,-0.496435827,-0.905174798,0.5893451868,0.866554337,-0.7795468609,0.1538463272,0.1576495073,0.5186221858,-0.4874982448,-0.234118428,0.3241241782,-0.3176241768,0.6190244759,-0.9535422146,0.7797154197,-0.2570242557,-0.5503427795,-0.1184932739,0.3166866083,-0.6338494712,0.9072095629,0.2056717355,0.5986050307,0.4274466488,-0.6173084958,-0.8877598,-0.3058796593,0.537425188,-0.1097435213,0.8221090884,0.521754667,0.5257576427,-0.1164153125,-0.1785667188,-0.3771468735,-0.7734644041,0.1810625522,0.5671956838,-0.7807378797,-0.0727032742,0.0703399561,-0.0790913332,-0.374940823,-0.8610170804,-0.131929434,1.1527698935,1.0893574938,0.2244298062,0.6053446811,-0.918528407,-0.4376003029,0.0682890168,-0.8522962589,0.3327549356,-0.0317181227,-0.3545887167,-0.5626390883,-0.3761173718,0.3822535005,-0.4263345851,0.3118078911,-0.2965447953,-0.0023072252,0.2688886923,0.6037089311,0.4633466984,-0.1553927233,0.0333423086,-0.1761751822,0.2994110592,0.2691998167,-0.9998969271,0.7388790505,0.0009543008,-0.4259181188,0.1727320391,-0.1613095595,0.3539594169,-0.1837815328,-0.7351090455,-0.6004615945,0.6610360449,-0.571145749,0.2770564771,-0.1665051572,-0.1229403313,0.0308258456,-0.0496250485,-0.965176455,-0.6118884446,0.0518211999,0.2786654144,-0.999116574,-0.6208023457,-0.5353763329,0.9299955124,0.263262128,-0.6623242719,0.3398479079,-0.2102837951,-0.3592934855,-0.0857878963,0.014052825,0.3945672541,-0.5825029513,0.313658325,-0.6525735166,-0.563593612,-0.149717968,-0.3616538528,0.4645036397,0.0938399726,-0.0232030134,0.0752122103,0.2605165196,0.8171727584,-0.5490679199,0.2825629774,0.5352448849,-0.161602778,0.949019378,-0.304250847,0.5777143369,0.7426154553,0.5955151587,0.1381095901,-0.0020766039,-0.8102406435,0.7332061634,0.8463859414,-0.5387050577,0.2601870236,-0.9515396673,0.1611522394,0.5254262882,0.5096524519,-0.3771407216,0.2947669565,-0.6156603515,-0.7000030725,-0.4499540007,0.4644995389,-0.8127926911,0.7482679929,0.3158376303,-0.5153596504,-0.9535194726,-0.2634624191,0.3302827501,-0.1368126404,0.7360103031,0.7950827846,0.1185725877,0.9920897387,-0.6308373772,-0.0216566307,0.4384456793,0.5587964207,-0.4363525016,0.1367907809,0.4299483469,-0.3558493897,-0.8529586092,-0.1013771727,-0.1090435411,0.9220694664,-0.4192010062,0.2629429508,-0.6210588663,-0.9051880576,-0.0059156582,0.5921557797,0.3937748906,-0.0039014644,0.7120680338,0.9358899115,-0.0677080358,-0.2178150127,-0.6678994838,-0.5150737472,0.5376813849,0.2371531609,0.7957065835,0.5473408532,0.7705485854,-0.8159281165,0.8698712886,0.8386863217,0.5396718838,-0.3810460921,-0.9082247108,0.7048260358,0.8189872944,-0.9220886081,0.0801473987,0.8054150156,0.1747233533,0.4878813604,0.0302876128,-0.6432123185,-0.9373483391,0.4704871574,-0.9976096534,-0.102545999,1.482285801,-0.946795083,-1.0012624178,-0.004752367,-0.3758109522,-0.5487703435,-0.352050733,0.1426010549,-0.4784624586,0.3787291335,0.3238816829,0.1220404177,0.5597977904,0.566317897,-0.7224201231,-0.9674701389,-0.13214436,0.1534067145,-0.7152238398,-0.3963225433,0.5924011258,-0.3007380575,-0.2644843365,-0.1507807943,-0.2893033161,0.7466057997,-0.1796011895,-0.2210760741,0.7489957586,-0.5246083683,0.3686775388,-0.6801753112,-0.3650083257,0.2504515638,-0.5406290732,-0.3316435644,0.0813793304,0.7978708486,-0.3000007359,-0.1551931375,-0.7586734241,-0.3758425507,0.0394168404,-0.1158230592,0.0336759096,-0.7425996534,-0.5768446687,0.8407180459,0.4005788638,-0.8897023222,0.908523942,-0.3465028904,0.8514903538,-0.5939480078,0.6686245625,0.2371901965,-0.9521112636,0.2555984774,0.4462733868,-0.3158431731,-0.9175542391,-0.9973204746,-0.8896443729,-0.0967628356,0.8333936837,0.1749417816,0.1667403262,0.2658654852,-0.1310274308,-0.5106162004,-0.7308954817,0.8415660219,-0.4031733547,0.6968767477,0.4063435614,-0.7439187244,-0.4990526116,0.1313162033,0.0633847147,0.2396225647,0.7255755427,0.5312487048,0.4758857236,0.0836948543,-0.9189356719,-0.8500317557,0.2802575087,0.7414880739,-0.1567226127,0.3085675401,-0.4836355652,0.5873020127,-0.728966854,-0.636002464,-0.2887626867,-0.2374129369,-0.9316241863,1.0703403476,-0.567427991,-0.8179423912,0.56579077,-0.0952832413,0.4601026908,-0.5291287379,-0.1444523106,0.682534408,-0.7067730962,-0.1457173392,-0.5412848806,-0.4837763689,0.2343407811,0.0068127275,-0.3457709322,0.4789670625,0.7062872143,0.6946464603,-0.5790887655,-0.0769501323,-0.509065488,0.3304259419,0.9860395843,0.4143116976,0.9390690112,-0.3103927191,-0.7346602898,0.3183060594,0.3972622869,0.5963565754,0.1079025405,-0.2346195816,0.0979064511,0.2273290265,0.630304692,-0.7115145803,0.4236292761,-0.1898190335,0.1587636041,0.740316297,0.1197715144,0.9192055663,0.2428892405,0.6401174651,0.309589689,-0.1598694143,-0.0050624918,0.0047600195,-0.2152653857,-0.9751979448,-0.9120435732,0.6976029345,0.481021454,-0.2202404662,0.9454673882,0.3894701188,-0.6230579497,0.4634292597,0.0591840701,0.273833172,0.0412350761,-0.7902683045,-0.3846461955,0.3575418447,-0.0347514524,0.0984013377,0.3639489194,0.3504567408,0.9226922346,-0.2436849249,-0.903097966,0.2156379191,0.1842795864,-0.0511961744,-0.6061667479,-0.9804007783,-0.4531487542,0.1495843677,0.5744114603,-0.0569422016,-0.6643878125,0.4378194638,0.8635434382,0.6342799384,-0.8940563361,0.1240768307,-0.1711210563,-0.3526601455,0.0900834034,-0.6259476777,0.5209957964,-0.0273693672,-0.5842431413,-0.0764024498,0.4245584587,0.2175648383,0.0437846676,0.3977995335,-0.1964683392,-0.574280104,0.9693997602,-0.5661975644,0.0876237969,-0.4237890205,-0.0815850828,0.8092471926,-0.1213051739,0.9169745707,0.5630953878,-0.3472362184,-0.49406311,-0.046683861,0.7230980877,0.0756384638,-0.8108851344,-0.6162986638,-0.0455422029,-0.5520700195,-0.5672841547,-0.5424299715,0.1783059559,0.3277672958,0.1397715561,-0.3646156453,-0.484639554,-0.6757462177,0.8346719197,-0.1176522486,-0.6725425932,-0.2524214198,-0.4692865244,1.092878886,0.9432570658,-0.591778643,-0.6049930159,-0.8263659346,0.632982306,0.6906803457,-0.7763470237,-0.9437623287,0.9035570249,-0.8667845193,1.0371065931,-0.7428361061,-0.5009448966,0.8453950224,-0.3766545843,-0.0767985521,-0.2422207917,0.0201131576,0.1399148453,0.0590504531,-0.0868039306,-0.8125362007,-0.2575776611,0.0636268606,0.6595447109,0.9571704419,0.0362440286,-0.7506578584,0.6584282703,0.5087778836,0.9488725028,0.0730004865,-0.0618413598,-0.4106299297,0.8951368477,-0.6995168784,-0.1995259433,-0.7604650597,0.9313065724,-0.8031106154,-0.8132835027,0.2655365238,-0.4820001731,-0.3900329228,-0.0710072674,0.4107397196,0.2391129919,-0.5907072177,0.6905838284,0.5119409392,0.1793523949,0.5862320524,0.8802611433,-0.8565278624,0.1705935149,-0.9859936702,0.2785296078,0.9936648493,-0.4557950666,0.103732426,0.0976109026,0.3302126501,-0.1594532271,-0.9863108032,0.2915273345,-0.1257101254,0.1209071449,-0.7821223034,0.2663263906,-0.7997387258,-0.6368081856,0.6989193439,0.5228966296,-0.9707058189,-0.1561946311,-0.2860424422,0.5583142854,0.4063284143,-0.028546707,0.3656087039,-0.546997453,-0.834690276,0.28423355,-0.1241488447,0.4171198222,0.0558368183,-0.4153645676,-0.5414837192,-0.264653344,-0.3834565412,0.0416987712,0.714408594,0.2285304398,0.9688945298,-0.4897859341,-0.7692728173,-0.7632489904,0.8198314241,0.559342599,0.5459724423,-0.1320529926,0.3547140565,-0.5445563801,0.4779756125,0.9579957445,0.5744686373,0.5457736533,-0.3264610006,0.774694845,0.408448244,0.1257433716,-0.6496926097,0.9937418997,0.5639586035,0.6968000476,-0.4106590768,0.8874639743,0.5545791181,0.97618015,0.4290630828,0.9373605687,0.0882103489,-0.3722066029,0.3362572156,0.5096955569,0.591681485,0.4498457193,-0.256389632,-0.4068569847,-0.6013097525,0.8236759022,0.2766999798,0.1690384389,-0.2363669537,0.5409529131,-0.860986277,-0.5200319282,0.4035395729,0.1090652495,-0.1253913195,0.4939677265,-0.4197870364,0.6905682978,-0.6976141659,-0.5007591231,-0.3222578432,-0.1269977907,-0.8165769317,0.3109846766,-0.0750494446,0.60107757,-0.8685870288,-0.9229455612,-0.7000472365,0.1915563968,-0.9766702444,-0.3674178811,0.931101461,-0.7753328479,0.7021622433,-0.321878931,-0.6758978672,-0.4652144599,-0.7398751205,-0.1834765582,-0.1167365546,0.5536070337,0.8693224059,0.8964008125,-0.8532320267,0.4293691196,-0.155006103,0.5048059496,-0.8661352143,0.39280487,0.3054178053,0.4752394924,0.8695107431,-0.4725982746,0.767358999,0.722995311,0.550660312,0.7426661992,-0.5308528696,1.0586442875,0.4132753297,-0.8377628853,-0.4945418028,-0.4893326193,-0.7567680389,0.146950899,0.2314904196,-0.4152957668,-0.4848143938,-0.4109378412,-0.8389803688,-0.0401483342,0.182050826,-0.586556693,0.8277136058,-0.6846909986,0.5400078127,0.2807739325,0.1732511503,-0.6525728938,-0.6499823374,1.0975336143,-0.4913295457,0.9311097503,-0.436243805,0.2963728729,-0.811991217,0.170129129,-0.8718909602,-0.5798007769,-0.387355959,0.9712332308,0.2233295761,-0.5683170534,-0.0944296812,0.894834248,-0.8523854476,-0.2218095202,-0.9599206307,0.4194637101,0.6715448978,-0.3559083004,0.6767346805,-0.8589212718,-0.3068632399,-0.2397213996,0.1712652378,0.3825984079,0.1796385673,0.6356229369,-0.9961350631,0.3814779996,-0.6918262367,-0.7963463729,-0.2273958582,0.9864362257,0.5381425511,0.8800637778,-0.742039811,0.8537335466,0.4677374574,-0.9165153099,-0.8212943165,0.3778343868,-0.1345363394,-0.551435626,-0.4544772919,0.6955217833,-0.6838271206,-0.4545689439,0.1029081589,0.8242466409,0.7476189698,0.5323724927,0.8567770695,-0.2720205654,0.3149890707,-0.8963397017,-0.0877985323,0.8571312115,0.6161981988,0.3596657463,-1.0218594884,0.516993562,-0.7103417065,0.1377483616,-0.4757612074,-0.4978517679,-0.2380143837,-0.4664084997,0.9006786983,-0.0209740981,-0.40015379,0.5262826378,0.125163401,0.7532273778,-0.8481220983,0.8939390234,0.9571895917,0.102694859,-0.4963099729,0.4016128376,0.9786349333,0.1621108517,-0.9579259246,0.3909574117,-0.1679296681,0.808837962,-0.4647302237,-0.1123176534,0.6428419366,-0.9452968803,-0.443813774,0.1629744655,0.6913101838,-0.0239433333,-0.5431011653,0.1698570494,0.142947625,0.1721434136,0.8681295396,-0.6817851113,0.2726188054,-0.6171394766,-0.4070792752,-0.8621150772,0.052988701,-0.5129460817,0.3381568903,-0.3061853973,0.0828369392,0.0987256415,-0.3858733712,0.89781542,0.0035557392,-0.9248278515,0.8469920941,0.5655372037,0.9353464962,-0.5528280603,-0.4083507153,0.3613439942,-0.8912062801,-0.5619270939,0.8824131155,-0.6899131787,0.881646096,0.8449175206,0.7172971599,0.1782555,-0.5110442339,0.4889420075,0.8038537046,0.8195353331,-0.4858793634,0.5305540713,-0.246898277,-0.697945797,-0.9737810498,-0.6832624404,-0.5192216935,-0.9200805807,0.1022741017,-0.493331922,0.1650283046,-0.0874962745,0.1420718672,-0.5599996225,-0.7260621638,-0.8638570332,-0.8066063093,-0.3778628074,0.1460287442,0.9559608371,0.0464772403,0.8841642334,0.0364573247,-0.9953832209,-0.9848663505,-0.126679986,0.3788423071,0.8559009807,-0.5232131766,-0.8088651369,0.1560097864,-0.9808798194,0.6860605163,0.2746945699,-0.7716341106,-0.2266795043,-0.8663443127,0.7332705525,-0.824337674,0.4800027913,0.8933669703,-0.542586213,-0.4587302906,0.2956535148,0.3269570015,0.480281297,0.8119977259,0.5055905885,0.0525884387,0.5906635704,0.8302379,0.4726771114,0.9189090003,0.0290378026,0.1124660452,0.8403428599,-0.7670724888,0.5413655922,0.5519714967,0.2621494582,-0.7053262219,-0.5405301145,-0.9594736067,-0.152397053,-0.0576251305,-0.6717178129,-0.4566344162,-0.1831758455,-0.3041792682,0.336966611,0.3152808124,-0.1716794762,0.3785109256,-0.3274538908,0.6687654742,-0.4645675248,0.8550097821,-0.2110319969,-0.8513312407,-0.9598250135,0.0530083547,-0.3529105251,-0.052806639,0.5753932363,0.5646410485,0.9711133616,0.1099487531,0.9074993388,-0.9338397602,0.5678209778,0.6840305853,-0.9367762576,0.984745023,-0.2942532297,-0.6694814455,-0.878122062,0.6362123112,0.8497468042,1.1080537041,-0.8133502166,0.2920335978,0.0751029739,-0.38125368,-0.0143450295,-0.4663692428,-0.0863856398,-0.8003893102,0.0447257735,0.6518051973,0.2916886876,-0.4600246063,0.2222735932,0.1242705026,-0.6838914594,-0.1085053531,0.7108346017,-0.2465136637,0.8297780852,0.2598650743,-0.0024667591,0.1576536197,-0.1476981263,-0.779273644,-0.6961532832,0.0543884147,0.1495944327,0.1954523182,0.1022591315,0.4103662795,0.6960024977,0.29505113,-0.6239249775,0.3011072675,0.5286044523,0.1782857708,0.6758511178,-0.5985949653,-0.188259922,-0.1510222105,0.8835003866,-0.6276810515,0.2250146845,-0.1177452324,0.3677920262,0.5117376365,0.553856647,0.8011383663,0.0063222834,-0.422081774,0.7563199845,0.6486314845,0.2907216946,0.4200055617,-0.6689736725,-0.9271787847,0.4963062521,0.9608491775,-0.4773092097,0.7718117028,-0.9072040368,0.373371799,0.6087487044,-0.0120765468,-0.7633413687,0.1933416949,-0.4265498773,0.6385299803,-0.2276935048,0.6814734162,0.4357205416,-0.8360982709,0.5639153996,0.130659653,-0.2012829368,0.3153376224,-0.1608469357,0.2278812577,0.5052724444,-0.5067156546,-0.2527763349,0.3969664965,0.6238284506,0.0626390572,0.9840907631,0.5706169921,0.913236916,-0.3026316622,-0.5965375056,-0.3624707234,0.7586712742,0.186816154,0.5605042531,0.5294018355,0.9210539891,0.6715869777,-0.9298034274,-0.0749593911,-0.9041979239,-0.2446387207,0.0399741081,-0.0960711562,0.2519643933,0.4631615728,-0.584767186,-0.1989646921,0.5873895127,-0.8367383342,-0.6553586711,1.0004889514,0.4920434758,0.4863209087,0.3460161499,0.1521612725,-1.0331788361,0.166573469,0.4297264537,0.8633833527,0.2711400172,0.6282271657,0.7368013279,-0.9258739346,0.4719187451,-0.8694390914,-0.8168091619,-0.3965912868,-0.7695696629,0.1586255525,0.204857051,0.0330149348,-0.2956581625,-0.1384744214,0.8272172758,0.9160804063,-0.2487224993,0.1840999295,0.7521253389,-0.8610035134,0.3295842113,-0.6482334412,0.2808728751,-0.4419498299,0.4343479213,-0.4500699688,-0.0664193205,0.9590762735,0.1639871366,-0.2306048933,0.7846248252,-0.2240595421,0.8222866354,0.5982074197,0.1125869596,0.3943725362,-0.6328575614,-0.5972554912,0.0353539723,0.1921884288,0.1394980332,0.1245454975,0.0268261106,0.0996059106,0.2067326832,-0.4706533952,0.9158353793,0.0108626701,0.1100500843,-0.6615723788,-0.7186292324,0.129164944,0.9723313207,-0.4434863682,-0.5800145048,0.7159098378,0.9600058771,0.9907058357,-0.4744344038,0.4366847274,0.792751006,-0.55949937,0.5300704193,-0.5025549704,-0.3668095092,0.3479974859,-1.0660058487,-1.0577046274,0.5386437538,-0.82642572,0.4534838986,0.0936491369,0.4689955794,-0.84809883,0.6106533981,-0.9645059388,-0.1911763957,-0.7819035729,0.7609543873,0.1640154462,-0.6809180696,0.0707328344,-0.5761308311,-0.550314151,0.4368544898,0.5556564238,-0.3451527548,-0.6763461176,-0.8872132784,-0.7941327586,-0.4081880633,0.535264211,-0.6763620805,-0.0162692782,-0.4303186078,-0.6102129978,0.0868769011,-0.0232043927,-0.7827859658,0.6815729903,-0.0141419305,0.2458151911,0.9465860805,-0.5782663105,0.3727574658,-0.5981047391,0.4860492568,0.3401171196,0.2211432496,-0.7021456788,0.7442944632,0.4295076079,0.1430665862,-0.0626118662,0.9637722859,-0.1337992805,0.768564582,-0.391689465,0.3205820222,0.8798936202,0.4328085874,0.0552771008,0.193600709,0.5967544475,-0.9485919165,-0.0300903678,0.9206281216,-0.9289811702,0.224297885,0.2052977732,0.1108004693,-0.2595931089,-0.2741752745,0.2087859541,-0.0282730858,-0.6302240305,0.7465983962,-0.8190787383,0.2346320949,-0.1955672839,0.8533311209,-0.672981678,-0.9601012618,0.6545024288,0.7595871104,-0.8487725914,-0.8141666371,-0.6227216568,-0.3483184622,-0.5722298753,0.0322203147,0.5825109931,0.6909829542,0.5693336786,0.9224635045,0.6590221927,-0.6895269984,-0.3699347951,-0.7902009614,-0.1731023134,0.4957641284,-0.428686672,-0.0937617063,0.5163631189,0.7348009527,0.9334258459,-0.203967834,-0.9736418702,0.6283300145,-0.9364730584,0.9230521602,0.1871794039,-0.8526364165,0.3672012364,0.8487375709,-0.7765896472,0.4452725777,-0.2935003441,-0.9505270158,-0.0144151922,0.4199487913,-0.0827317022,-0.9637934931,-0.5609984508,-0.7375757688,-0.7304964155,-0.1082278079,-0.3497117543,-0.34779205,-0.535587914,-0.6956042137,-0.3311855576,-0.0392419686,-0.7941378868,0.4978872948,0.3207013495,0.4583142352,-0.8470015492,-0.541088911,-0.7230837625,0.580345706,-0.036797586,0.7187902444,-0.5111772009,0.8952412119,-0.514392031,-0.7795950601,-0.808722355,-0.2724469485,0.0185897745,0.997530201,-0.6110131008,0.2640076515,0.490014523,-0.8048298671,-0.71061226,0.8847853311,0.1009831041,-0.386928946,-0.5823803682,0.9254950504,0.995693788,-0.0563040802,-0.8065558765,-0.8925264103,0.6488443658,0.7288552973,0.524085115,0.348656463,-0.6878944624,-0.0951946112,-0.3761473583,0.2923247241,-0.5567977673,-0.6879516641,-0.0005485996,0.5532078832,0.1423125412,-0.3149447977,0.4256425885,-0.8478792331,0.807741931,-0.5308252195,-0.6362476956,0.5835001072,0.9787660949,-0.5416294195,0.040735145,0.8774599855,0.23146784,0.9112103898,0.924432762,0.4127190353,0.156509853,0.3867080626,-0.6114351072,0.8857809981,0.0955888342,-0.5434114579,-0.7157625019,0.4698857701,0.6346353143,0.7228867184,0.2263282563,0.9275055985,0.7725712011,0.043041938,0.1044076002,-0.4875697332,0.8355442687,-0.1253003758,0.0594201109,0.7128945542,-0.1099945517,0.5558876165,0.6278863703,-0.9544518821,-0.0606566457,-0.0913873072,-0.533087752,0.2756390309,0.1095071185,0.5091829216,-0.3981498616,-0.8551975119,0.1288413938,0.6724489337,0.2689191426,1.1600746789,1.0672887999,-0.5852739871,1.0176628905,0.1172518884,-0.6178403049,0.0071241659,-0.094365926,-0.9715720642,0.2840760447,-0.7402384009,0.9809755766,-0.538272361,0.5725567584,0.2069424366,-0.9087446031,0.4736657495,-0.23727825,0.3580092324,-0.9582297128,0.843772977,-0.2389400875,-0.1614583903,-0.3490698352,0.1090316525,-0.1707527557,0.7096609031,-0.8706229084,0.6030580153,0.7318729516,0.688791693,-0.2984182377,-0.7470676296,0.1382002671,-0.0355383583,0.4598292774,-0.4833978132,-0.0718529038,-0.1812543056,0.4696001447,-0.3502140055,0.2863973356,0.9068192003,-0.0483794851,0.4085500327,-0.5790593132,-0.2613540398,0.7816321897,0.4985288946,-0.211115271,-0.2752840396,-0.8249039283,0.7115494207,-0.6897160273,0.7659521675,-0.9744044437,-0.8987498671,0.3165384943,-0.1037256728,0.9047965349,0.0172616371,0.1300100121,-0.5884789378,-0.0778060303,0.8661339548,0.7481031337,0.9588499741,0.9436401015,-0.9322193915,-0.4954502832,-0.2508138763,0.558856236,0.757966345,-0.2456361385,0.131151448,-0.2195636315,0.0646482106,0.3335789144,-0.7782881336,-0.4871214241,0.8462655819,-0.2022295244,-0.021467955,0.7784414202,0.9426294209,-0.3565125563,0.4801952161,0.8033547445,0.860306943,-0.4910974202,-0.9622661383,-0.039686984,-0.932805694,0.1966232906,-0.558861451,-0.2233412526,-0.6510976877,-0.8052253462,-0.4290971435,-0.743972959,0.6364853458,-0.8128824092,-0.8486521777,-0.5474794283,-0.1697968252,-0.2066855521,0.7100484231,0.1615760226,0.7635856754,0.3486694609,-0.2497839912,-0.3455517863,-0.1567391477,-0.7998464976,-0.8191907528,0.3055145192,0.056540232,-0.5708152047,0.4732171211,-0.4942815769,-0.6282406131,-0.4587161082,-0.9677455961,0.5361493253,-0.8649809639,0.1423478753,-0.2394455191,0.8932214862,0.971958829,-0.3792591597,0.2994773949,-0.4580634909,-0.3359212519,-0.2749213253,0.143717631,0.3261967225,-0.6490623387,0.5510650002,-0.6339221349,0.4188760857,0.0237436429,0.0843615345,-0.9632290985,0.4940528596,-0.494549548,0.1865681442,0.5530357746,0.2081922364,-0.6444182557,-0.047480363,0.6026470918,-0.2640991766,-0.3441802613,-0.3162721812,-0.3672480395,0.0147019725,-0.2777222931,0.1668730733,-0.1279174273,-0.6650814991,-0.7013647474,-0.1980467801,-0.0922095542,-0.4824316394,-0.4432429455,0.8354940973,-0.3400923995,-0.404314335,-0.5019293912,-0.5275149314,-0.7079998168,0.3034339393,-0.3824247727,-0.0199370049,0.6145226938,-0.4045908326,0.3945736829,-0.8882216993,-0.770805247,0.2659769298,0.8973307751,0.7989932665,0.7993317829,0.6145295036,0.9938591017,-0.6122449199,0.4832444621,-0.6623870404,0.5881496592,0.0515503255,1.1520536128,0.0960602736,-0.1756972824,-0.1040803144,-0.5807444713,0.3806626623,-0.6792997145,-0.1176100066,-0.0280424815,0.3015123731,0.410508096,-0.8092229699,-0.9824723863,0.1823924529,-0.8837823554,-0.3994908666,-0.1937069998,0.2669577624,-0.4135270198,0.5750831512,0.9347876443,0.8990120616,0.1667133459,0.8018779392,0.0248642185,0.300920325,-0.5291540579,-0.565661269,0.8534121075,0.3731827556,-0.6143340086,0.6163768839,-0.4947257311,-0.8358253327,0.6761733827,0.9850790261,0.7237838149,0.4416076822,0.4068907425,-0.7054843308,-0.5978226965,1.1396198768,0.324936318,-0.8235450235,0.2175344842,-0.9285450773,-0.2675316906,0.1054004296,0.5166925016,0.8301174101,0.9835431124,0.2090880516,0.6015487494,-0.0955886699,-0.108888532,0.9716345244,0.8997092427,0.1431042833,-0.259062666,0.2566098557,-0.9121365461,-0.4344990871,0.860024328,-0.2624717216,0.6688603147,0.5673471905,0.9086982415,0.1672545621,-0.845688976,-0.656001489,0.585710649,-0.833292385,-0.2640919389,0.0174574797,-0.5520216055,0.4582154774,-0.3604853096,0.5431794983,-0.3384880116,0.9259751958,0.3880073427,-0.3481629633,-0.3092785895,0.4697771988,0.9523070133,0.5797272415,0.8913012268,0.699467736,-0.8764482415,0.5407765268,-0.4766657396,0.8328505415,0.3081692356,0.2639249618,0.923610128,-0.8682534307,0.2164740574,0.5539347759,0.3810866087,0.1269162916,0.5551155039,-0.6353835307,0.3866571419,0.1052511284,-0.9008232715,-0.2417964279,0.1878583845,-0.7682488453,-0.2466066702,0.5699403429,-1.1023811601,0.4369743605,-0.7811500453,-0.8266033522,0.5940247664,-0.2692279912,0.0412198283,-0.0869693836,-0.8816473883,-0.2278130911,-0.4457682339,-0.8659078682,0.4192419841,0.9308598564,0.8212982025,-0.9412289633,-0.554245271,-0.6757012639,0.3877181959,-0.7154666102,0.0662938916,0.9242917038,1.0326419756,-0.3930717079,0.0199111189,-0.16281994,-0.8201688121,-0.7374447033,-0.9731692582,-0.1998207224,0.5207168828,-0.2235073472,-0.1841104945,-0.7312107493,-0.1849102706,0.2870385758,0.2586466322,0.6822901647,0.9871639436,0.4255189215,0.2377483348,-0.0295098163,0.3068632632,-0.8649419388,0.2110379726,-0.0328092567,-0.0250643378,-0.1630020144,0.9325956538,0.5181147918,-0.7242302005,-0.5000939461,0.7703794651,-0.731651759,-0.8310328938,0.1182484095,-0.7653323724,-0.9745310716,0.1295652699,-0.2931266542,0.8853758088,0.626321899,0.9601164576,-0.7748781199,1.0091869662,0.9380575884,0.2363095651,0.2023730437,0.8767123792,0.5285534587,0.7468498634,-0.3167391329,-0.7808825417,-0.6928449869,-0.2287984666,0.8886096231,-0.9613181382,-0.735861346,-0.9325332852,-0.000741745,-0.3828111439,0.6761297041,-0.7152771801,-0.520921809,-0.7863928634,0.1987059124,-0.837690631,-0.5430954941,-0.0523376699,0.8998005257,0.8028255379,0.5631309841,0.8238291163,0.9273474599,-0.5459545683,0.651867753,0.4739528886,-0.5901854937,0.4710295526,-0.9493769567,-0.588508555,0.2395582042,-0.8457828876,-0.259571567,0.7459687098,-0.04852015,-0.7912260684,-0.4258424912,0.0155700615,0.3081768122,0.9958233767,-0.9889042284,0.6715664659,-0.2482445225,0.3753132458,0.3913243153,0.5509835075,-0.4557454038,-0.4635679456,-0.6341362153,-0.9253111911,0.240252051,-0.0006405464,-0.3898989933,-0.9887817976,-0.6711726541,1.0207409415,0.9020319431,-0.4171676638,0.9799797029,0.7955103746,0.7709685699,0.8041941665,-0.5849423051,0.4935235362,0.4402387231,0.0319809042,-0.7339327977,-0.0262412706,0.9588520307,0.4645902079,0.7796729378,-0.1938396379,0.2955204683,-0.7235011346,0.255189674,-0.5673883027,0.7789148784,0.6254794957,0.8542147147,0.5376090495,-0.2084902084,-0.5918400913,0.6469920881,0.1184149736,0.6541128002,-1.0136896643,-0.9096266984,0.4094275259,-0.9236917005,0.1308764013,0.5611671641,0.3737876336,0.1475130723,0.6943931523,-0.8875040451,0.7672922427,-0.1702428154,0.3704607984,0.5078199968,-0.2656951161,-0.1847800292,-0.4617201518,-0.012670697,-0.1464268656,-0.0386251978,-0.2537007397,0.6606354035,0.4542023429,-0.9900282922,0.0662019541,0.6544712213,-0.3842722113,0.8060500986,0.7859524378,0.1353876007,0.4979576554,-0.8358323139,0.0347913996,0.5225365771,-0.3419660109,0.9466907843,0.8497105399,0.4957110462,-0.4512591685,0.3094784187,0.4019851834,0.0632619916,0.7351694255,0.7755839175,0.004801422,0.9049626055,0.1443570157,0.6270523981,0.4344830292,0.2889282737,0.7661873169,-0.9501003167,-0.618331607,0.2102177006,0.5164331464,-0.7430467079,-0.263206479,0.7349101514,0.4777682942,0.4620105132,-0.6680344816,0.1255046924,-0.0529075772,-0.1935573334,-0.4499481699,0.2721079084,-0.3014870549,-0.3198355608,-0.371526128,-0.5991257675,-0.6560267087,-0.9294048184,0.2624544731,-0.504042806,-0.7973433498,0.1435363412,0.537728426,-0.6710372409,-0.9435484465,0.3224103583,-0.0013112533,-0.451161471,-0.3871198577,0.8694060935,-0.8516919893,0.0816190539,0.2359592928,0.0126204496,0.5178778172,0.0245503503,0.5986402738,0.6096224004,0.4859953598,-0.613842182,0.3374330994,-0.6522969343,-0.5199366414,-0.8231042756,0.672562795,-0.5513024433,-0.1595023582,0.4290606904,0.8163583251,-0.5108248178,0.1126928168,-0.2594046487,-0.6662473771,0.0853247577,0.65164415,0.4632931808,0.6382271572,-0.0695004443,0.9461772499,0.1496160741,-0.5850718469,0.7254703004,0.0565145458,-0.329926131,0.3849997083,0.101061709,-0.6046764089,-0.2071795354,-0.1479701744,-0.5414303043,-0.4354574759,-0.6684752487,0.9879073506,-0.7975244041,-0.6832565674,-0.6906628993,0.5619282155,-0.688448941,0.7164691852,-0.9577770998,0.2371777537,-0.2065664495,-0.5879395884,0.4672432652,-0.1025473543,0.5255888735,0.8456671162,-0.504162219,0.7598568205,-0.5264569574,-0.7160186837,0.8345573672,0.0332416214,0.9563688646,0.2092468259,0.1024718232,0.4583492991,0.9848796241,-0.9129191344,0.2822143276,-0.3105002068,0.685355734,-0.1607036174,-0.5989558373,-0.4631450692,-0.6316679742,-0.0099913391,0.5853275636,0.4707446683,-0.0271659157,-0.3562352431,-0.8187278318,0.5725086258,0.1373270768,-0.7063766329,0.4064596876,0.715201424,-1.1325944202,-0.0514067935,0.0088633946,0.7667763805,-0.4307989751,0.0723874475,0.6919099167,-0.6699719253,-0.3967388406,0.5691163372,0.4599297452,-0.0921627916,-0.5620002453,0.263918648,-0.616559986,0.1973807166,0.4833634795,-0.2087210161,-0.3239666163,0.2441005099,-0.6305422986,-0.9388037456,-0.0103041048,0.3672589604,-0.972286112,0.9914466934,-0.4399714137,0.204362527,0.4063283616,-0.6236197043,-0.0115371529,-0.5902661137,-0.5474870008,0.6290492065,-0.2448887135,0.4787677879,0.4707218186,-0.4421030219,-0.4502848605,-0.0507476938,-0.3311749906,0.0607619876,0.6705035799,0.575172352,0.1218701805,-0.1239115048,0.7168038971,-0.3641756911,-0.7250715874,0.7436057369,0.4563138591,0.9581650551,-0.2003809132,-0.4379460218,0.1076621746,-0.4499709634,-0.2326270048,0.0346710698,-0.9405164262,-0.6169826932,-0.1189415049,0.4863711207,-0.062529084,1.0013506696,-0.4632360169,0.0833605512,0.1906816291,-0.6832642077,0.976439123,0.6469333142,0.7530628464,-0.2722203472,0.9268897656,0.3967860643,-0.6880250699,0.8662939687,0.9113546101,-0.3917260528,-0.0873893783
   -0.4523789294,-0.5313575773,-0.6113466541,-0.5576359735,0.9010861817,-0.786214625,-0.2426094011,-0.794240752,0.8164461023,0.213527525,-0.2530254135,-0.8630084549,0.2984047918,-0.6030284939,-0.7384682722,0.8169559058,0.0418586036,0.7237887789,0.6706713248,0.611537575,-0.5280436107,0.3600521496,0.4874068042,0.2102434982,-0.0858931962,-0.7661728108,-0.5784239104,0.708931975,-0.0404246106,-0.2178651424,0.3160644149,0.0923451103,0.8655077582,0.5471653423,-0.4031539837,-0.1515390416,-0.0855495269,-0.7387656857,-0.9877735034,0.5643737965,0.1619941315,1.0035524742,-0.4152311412,-0.7059208393,-0.2320057869,-0.9273819192,-1.0358318357,0.9543783706,-0.9185358425,0.2165136121,-0.5770696092,-0.3108094478,0.3571266514,-0.8611560582,0.4226057198,0.5368728535,0.5248441615,-0.5523616318,0.8228290657,0.1958093812,-0.0249932887,-0.8284000794,0.7087207178,0.2010573659,0.8549647848,0.0517275217,-0.9923582758,-0.3039719709,0.73977046,-0.1015317099,0.7009071268,-0.8084881774,-0.7611092915,0.4036107831,0.5324020045,0.1280206223,0.06433539,-0.3864822395,0.6054355064,-0.0199716744,0.0667890443,0.6390084603,0.9279340162,-0.7412663092,-0.427065286,-0.9356928175,-0.7256357649,-0.718034783,0.390273867,-0.5492022393,0.0198548065,-0.2702353631,-0.8048028782,0.6487685675,0.5463221255,0.0801137387,-0.0227853317,0.2228637597,-0.0796690652,-0.482695831,0.4443179185,-0.0391064318,0.3886928821,-1.017984486,-0.4331713502,-0.77389287,0.7082502709,-0.5341996681,-0.8001476097,0.3478281413,0.3683304942,0.3414124243,0.6691590927,-0.0769929475,-0.5029260185,-0.8304702099,-0.2311622868,-0.8186105114,0.707900657,-0.8640496848,-0.2560769769,-0.3490592743,-0.7089174869,0.214617626,-0.8462158868,0.422148029,-0.0202536024,-1.0775182012,0.8795834242,-0.3511990722,-0.2303092716,-0.2784281196,0.9689309661,-0.215854529,0.3211027322,-0.2753426352,0.2058462567,0.7143990747,0.2229729278,-0.141340938,-0.032678478,-0.0063173367,0.6267665032,-0.1888138136,-0.0920135717,0.9324153898,0.8735449273,0.118673453,0.5545045333,0.3697430481,0.7963014175,0.7207509583,-0.3920522024,0.698099058,-0.5330419613,-0.7883565619,0.7642581599,0.210150159,-0.6365352977,-0.5472677844,-0.1906047882,0.2438067902,0.5611332014,-0.6577965461,-0.3942862194,-0.5554512442,0.6236537577,0.2923165195,0.9191563514,-0.4160282076,0.6307593422,0.0614658257,-0.9969333677,-0.9047901708,0.2357097436,0.8551711605,0.6415620514,-0.9684060913,-0.1074652043,-0.8842032441,0.5395153999,0.6993349264,-0.5110877306,-0.3931327655,-0.5984683741,0.8535957148,0.5624727614,-0.0859483591,0.0107044385,-0.1332807339,0.4859544913,-0.6512917857,-0.1492480694,-0.9248760327,0.0096298052,0.3859478589,-0.1922128158,0.2770788288,0.5020634722,0.7985809474,-0.1144065799,-0.5835721887,0.6009957707,0.9448864447,0.6902401506,-0.0909443304,-0.2050586711,-0.237248614,0.7767915253,-0.3722863664,0.0941471878,-0.9830716346,-0.2057256582,0.9513545214,0.431473347,0.9694551027,-0.1864676598,-0.7509048127,0.3619459991,-0.3240590898,0.6914049057,0.6733749806,-0.0074649148,0.9702846974,-0.5318551101,0.5792293408,0.8449715324,-0.5959389,0.2548249154,0.3099249155,0.1738653048,-0.83957155,0.5013899089,-0.3622087241,0.6532772355,-0.428770051,-0.0253267868,0.300587949,0.2651144906,-0.2091305423,-0.1249487612,-0.0295478899,-0.6884552499,0.1353983598,-1.1457006789,-0.6873735082,-0.4067357926,0.1478603745,1.192231408,-0.6874727659,0.0465466804,-0.5251693774,-0.0071427314,-0.5472618681,0.315378201,-0.9750356081,0.4114944725,0.0556761463,0.9283074051,0.8805048278,0.5530940634,-0.6597730882,-0.7845562312,-0.1830068474,-0.9210998668,-0.0405013847,0.1917416721,0.2691319189,-0.8753160566,0.8000324536,0.7114472331,0.9698779446,0.0374974277,0.2649925863,-0.7785103159,-0.4576722399,-0.0382829242,0.0892082617,0.9167584397,-0.1634013462,-0.4277527631,-0.5964553831,0.5136361845,-0.5400346662,-0.8877007271,0.0076364545,-0.2625162922,-0.2795189311,-0.420492413,-0.3735499508,-0.3010760941,0.3532686868,-0.2461944974,-0.7389344312,0.1519211224,-0.8769120458,-0.1812149523,0.221699572,0.0394144972,0.0150504692,0.392819554,-0.4499064769,-0.8952786303,0.3880307384,-0.7502737657,-0.9718527945,-0.4317388197,0.8064130517,0.5657437023,-0.1708402117,-0.5721172623,0.7259946895,0.2879591273,0.0718520034,-0.7663613015,0.0781696509,-0.2077599191,0.0039713052,-0.7402456125,0.3367439004,-0.6958603455,0.5969326935,0.8611240977,0.7472851834,-0.7005750837,-0.4539670218,-0.2731410946,0.4726520485,-0.1598339757,-0.0707297927,0.6144655596,0.0388778792,-0.248916958,-0.8427280362,-0.3906899478,0.8796302842,-0.936540316,-0.5412550558,0.8419810719,0.9454192132,0.6443682103,0.7076015435,0.5193088038,-0.0959459003,0.5184290229,-0.0517585375,1.1368489284,0.7118284968,0.5825573395,-0.1838209714,-0.0294408392,0.1260547585,0.5327738465,0.5599535464,-0.4875604793,0.1904877102,-0.9019203046,-0.6605205979,-0.5652195771,0.0865618106,-0.364215332,-0.8991480519,-0.5391070772,0.6468687828,0.5927351166,0.8810628187,0.401185849,-0.5776717446,0.7443177061,1.2028462914,0.7053421886,-0.8769207904,-0.372780316,-0.1356506239,0.5359704284,0.0095177311,0.0275927575,-0.7610691753,0.1451136392,0.8827322626,-0.0544670706,-0.5800931275,0.4280557412,-0.1876626421,-0.4307536583,-0.0422176412,0.8498961789,0.8918009715,-0.3696979104,0.3129160479,-0.1603539997,-0.6864822459,-0.7871017778,-0.5165415536,0.3296829001,0.7844089606,0.0244815557,-0.5968234196,0.5192186157,0.0429359519,-0.8342594062,-0.3205800076,-0.7321286895,0.9741399614,-0.6921389376,0.9667563801,0.3689149089,-0.7491512189,-0.823177107,-0.7757886893,0.4440784612,0.2161855948,0.006740389,-0.6723907431,0.7422176776,-0.1018036156,0.8766676415,-0.6774756064,0.3204439467,-0.7978016884,0.1223195968,0.5760979406,-0.6258613063,-0.7244225226,-0.9287015456,0.6360277375,-0.1598948891,-0.4547376905,-0.7657599402,-0.2401623447,0.2971986289,0.4348680083,0.882935877,-0.4837502197,0.7923780667,-0.3970929427,-0.2740014144,0.9942458277,-0.4856734641,0.9545939826,0.3820511951,-0.1854852375,0.1826783701,0.7824842778,-0.9699387713,0.630688005,0.0569611092,0.2672994159,-0.9430082941,0.0703525685,-0.5862734137,0.7155925434,0.2761462534,0.2630741816,0.5249721552,-0.7551576582,0.9074428777,0.2561883328,0.1771925009,0.3402042959,-0.7636974686,0.2296926057,0.3513489323,-0.2242205693,-0.8601743822,0.8580373441,0.5149483818,0.2076013508,-0.6374060106,-0.8870044047,-0.6669201167,0.1401093654,0.259666263,0.5849947398,0.6713730093,-0.0888165904,-0.8865868741,0.2468933162,0.9668918305,-0.7801208857,-0.7082832373,-0.4833542336,0.9276844469,0.3676728041,-0.3897938977,-0.7099259466,0.469280092,-0.5025110339,-0.3688273027,0.2271481593,-0.4467672015,-0.5865331587,-0.2481930928,-0.3630853865,-0.1144635533,-0.2657072669,0.6249189459,0.8738812352,-0.2783602839,-0.9141333847,-0.3352451696,-0.5163865428,1.0462310689,0.1327590544,0.7018484599,0.7565947196,0.771614527,-0.9011933944,0.418863838,0.0813736465,-0.4976586018,-0.1593183584,0.779368303,0.3864193681,0.769300939,-0.8954088397,-0.261370391,0.0595869939,-0.8111036425,0.323018883,0.4898759783,-0.3528312031,-0.5544154926,-0.7003563199,0.1739956347,-0.3547613274,0.6460870618,-0.3722942765,0.4755524276,-0.344035172,-0.6638810402,0.5984697382,0.3502174974,-0.4538501942,0.303616673,-0.2883571668,0.8981246367,-0.1993029225,-0.0895544227,0.2142694749,0.2856331651,-0.5701102193,0.080723579,0.6992311906,-0.1404287129,0.5814105869,-0.8515053832,0.8054012843,-0.4870680006,0.4498797379,-0.7382630926,0.0398087594,0.5825668455,-0.9450653671,-0.6580529711,-0.1872685414,-0.5112152325,0.9122725943,-0.2347090848,-0.2481197891,-0.0947094982,0.6856238771,0.0659316336,0.4086468611,-0.0876891598,0.6421424094,-0.8426932264,-0.7990116618,0.1402817554,-1.0654721018,-1.0623258298,0.1743237537,-0.2919891791,0.8510858883,0.5761738353,-0.9815626137,0.3038871253,0.4259597808,-0.2829737448,-0.2634016422,0.636467398,0.5614951024,-0.4848181752,-0.3470986829,-0.8781278966,0.7550569681,-0.4472569572,0.6564938356,-0.091641177,0.8930571138,0.8101314299,-0.3439762795,0.2070201877,0.7430054741,-0.1638963711,-0.5523500698,-0.1274363929,0.0386791587,-0.7837201691,-0.6750949203,0.3968378545,-0.3808942332,-0.0452250295,0.2354208888,0.1162853361,0.7675501303,0.3166230879,-0.8474356866,-0.7684315237,-0.5860942966,-0.4562373048,-0.3576330541,-0.9414896737,-0.2741747176,0.6530702476,0.0958345123,-0.6490155938,-0.6055260758,0.4588569769,-1.2420213239,-0.5171020145,-0.0083627638,0.6073506572,-0.876557843,0.8454311588,-0.9966034751,-0.6493398084,-0.2054097826,0.2684814656,-0.0421762446,0.5528645843,0.6582335546,0.1889143402,0.9762120852,-0.7147453537,0.9663238994,-0.963465961,0.5104779495,-0.834995625,-0.9302835588,0.6462757734,-0.7221627078,-0.3242954505,0.8482131942,0.643918135,-0.2651540393,0.7017072925,-0.3584538702,0.1710455215,0.0095495896,-0.3741041606,-0.2855010209,0.7251933466,-0.6131387485,0.3171976828,0.9540156357,-0.3222345602,-0.7742667734,-0.0027791533,-0.479875369,-0.5211454948,-0.3100998054,0.2167244564,-0.325240369,-0.5985576853,0.4202567558,0.3614189716,0.7592720096,0.649933524,0.5100294748,-0.2468448754,0.0274419574,-0.2991313122,0.3384733732,-0.0465291503,0.6098762568,-0.4257988714,-0.8030326606,-0.0212684821,0.6889427198,-0.8138256331,0.4078265461,-0.8212586256,-0.5805619113,-0.2179198458,-0.2804881817,-0.2048954035,0.2239508837,0.6636789329,0.4431298752,0.7924682477,-0.9209651798,-0.8056454462,0.011713615,-0.0308367277,0.0047198589,0.1487986244,-0.0921342267,0.9454765355,0.2163269643,-0.0846776061,-0.1207580699,0.11970016,0.4760735838,-0.2331611997,-0.6039686492,-0.5864145192,0.4036353442,0.7287989596,0.8373714479,-0.7299416781,-0.645874471,-0.0350290633,0.4218832227,0.52848714,0.3876850429,-0.3275202045,-0.4894420581,-0.8759384886,0.0266182787,-0.2758108163,-0.1322205777,-0.6009655503,0.3796018074,-0.6781117802,-0.7074323902,0.1420223788,-0.4341752017,-0.787463692,-0.1158848744,0.0389568912,0.2692258928,0.5630752097,-0.4957506006,-0.1286232576,-0.2898015958,-0.9058874498,-0.1074159107,0.6498792246,0.4115854812,-0.7574246384,0.4332444456,-0.2907860857,0.4421109105,-0.6802301224,0.5927521758,0.7987341736,0.3430101702,-0.4464309157,0.6974011458,0.1990773527,0.8022109662,0.4947843215,-0.4158173021,-0.5802442113,0.571289691,0.418692564,0.9787619484,0.2518895951,-0.0441589104,0.1262614427,-0.6870308811,0.5733160304,-0.4951584353,-0.1661740168,0.0312267218,0.5138262442,0.8597690329,0.886406667,0.8012294237,-0.2749477222,0.1428329267,-0.3376842664,0.1441481155,-0.499359359,-0.2732900298,0.6372110297,-0.1472864989,-0.1653547773,0.9675449246,-0.2031966665,0.2383330569,-0.6119643438,-0.7856255123,0.6898611671,0.8657513584,-0.7681923452,0.3595137477,-0.3721103939,-0.4704363661,-0.4520569158,0.0739792733,-0.6914158672,0.3985545494,0.7740129608,0.5922555616,0.4713480324,0.8990898788,-0.9519504081,0.1219131733,0.4929957176,0.900690035,0.4512042541,0.6627041885,-1.0044304943,0.6383379426,-0.4115169474,-0.7884041041,-0.7142416812,-0.2933631159,-0.9571319421,0.0584537725,0.2870088964,0.4100628773,-0.0664576368,-0.8394948015,0.16741087,-0.3330406045,0.1023676952,0.4875327362,0.0569052435,0.2454000854,0.3844682183,0.5525461427,1.0466134684,0.2143621785,0.3416631763,-0.2688766011,0.6159201818,-0.5253100127,0.0060509205,0.1249688241,-0.5563176059,0.471751948,0.6091163944,-0.2560047399,0.0076166302,-0.9563031969,-0.2205865452,-0.3103276008,-0.5587454361,0.1766514283,-0.8221784624,-0.1940277881,-0.0741000234,-0.9142229627,-0.5068715528,0.6958301166,-0.8700778926,-0.9068613022,0.3813830137,-0.297050503,-0.3057336199,1.0137680721,-0.657165481,-0.4063176842,0.5511590887,0.188997787,0.5265279175,0.125892563,-0.6182735256,-0.5306610857,-0.8712494644,-0.642179336,0.098611552,0.6900931026,-0.7124482311,0.4514441631,0.5536051949,-0.8051661215,0.7262976698,0.5283073488,0.8452802375,-0.2630915049,-0.7120445361,-0.347148094,-0.0239055587,0.8844872319,-0.0550719363,0.6339341181,0.8838468754,-0.3400343424,0.6596614963,0.4426537418,-0.1873429698,0.4592604506,0.4508135158,0.0969641589,0.2250162503,0.5354684259,0.9834363802,-0.1526012302,0.8023545555,-0.6359003941,0.2068612512,0.7362772041,0.4706698923,-0.6024407967,0.6360427182,0.2220543369,0.6732591096,0.3379320934,0.6755058975,-0.9204785785,0.2493665612,0.5422145662,0.7838026335,0.9874626947,0.8026171853,-0.4545291645,-0.3921352293,0.1267612827,-0.4119001058,0.20430279,-0.8466701399,0.7274182831,-0.6104065737,-0.5697879345,-0.906464931,0.1092893266,-0.0457399157,0.8317313641,0.424884704,0.7572811153,-0.7033731612,-0.1694598359,0.3345812537,0.0906584834,-0.81551375,-0.6307880874,0.6629727414,0.4954434817,0.4499173411,-0.5070107392,-0.9033013464,-0.8036939083,-0.4903535281,0.6777762056,-0.0603338334,-0.2494407209,0.287466135,-0.434662843,0.9721605118,-0.758017591,-0.3502453281,0.1964456109,-0.0289751275,0.9955451984,-0.2712146224,0.568523347,0.2433329224,-0.3295735962,-0.2365456086,0.7819131636,0.4331873762,-0.0191876307,-0.5805208881,0.2717197031,-0.6336882408,0.7453534407,-0.8527515807,-0.2795920222,-0.7501992792,-0.8365470513,-0.056686631,0.9685267387,-0.1086544115,-0.8909023451,-0.2516981199,0.7034039104,-0.2979412338,-0.524065798,-0.1830512069,-0.3640022305,0.229671641,-0.8581477756,0.3476203905,-0.7156459137,-0.1773432534,-0.2774684211,0.2851176238,-0.2816841707,-1.3320660784,0.7500734376,-0.4202536108,-0.7970439634,-0.0495262972,-0.4975796791,0.733755214,0.2076335989,-0.0513594189,0.0492030474,-0.8465381882,-0.1070178484,-0.3204346012,0.4819904873,-0.7409133667,0.7272946,0.5882377252,0.124662635,-0.1620138577,-0.2279138337,0.8911163392,-0.2800228637,-0.6899736659,-0.3969900143,-0.3083894089,-0.4910596937,0.8228994921,-0.456541505,-0.5360058344,-0.0038004985,-0.4898056274,-0.4269117881,0.3189687918,0.0375990683,-0.1795164521,0.3793398591,0.2860413355,0.3823054902,0.8146605051,0.395877652,-0.9518982842,0.3671023028,0.0777071404,-0.8355298762,-0.2279777513,0.1679618076,-0.3523627387,-0.8081130974,0.7823251165,0.5779641284,-0.6071308731,-0.3614688779,0.3320602829,-0.2388844532,0.9315968746,0.7973789988,0.1909533433,-0.0936473249,0.4902820915,-0.3115100479,0.1727086783,-0.4374907195,-0.2835153715,1.0468064127,-0.6039394506,-0.8783278355,0.6971096449,0.2815389269,-1.0030202057,-0.8697005401,0.1669259763,0.0304428868,-0.3372117284,-0.4043532615,0.5190235369,0.6378286442,0.9958150128,0.4168966832,0.0424640388,0.0300222529,0.6010044365,0.3643805668,0.4387844042,-0.6374300762,-0.2925364231,0.3757008545,-0.7705339484,0.592332256,-0.6123667859,0.2738148986,-0.2186431244,-0.6060138419,-0.4766015673,-0.8647010097,0.3309937783,0.3253538916,0.3831198998,-0.2441723226,-0.2383600948,0.5552815315,-0.8500281968,-0.3063622581,-0.2826801277,0.5440624751,0.9796526284,-0.6305663549,0.2831127202,0.3132409669,0.0988048721,-0.231586254,-0.5779629703,0.6597686823,-0.4302930042,-0.6031628946,-0.4813011949,-0.3401135957,-0.0699434112,0.1402550891,0.0130251297,0.5298567041,0.3785113071,-0.1551987798,-0.0530840407,-0.2181380287,0.0027860418,-0.5447295338,0.9543912271,0.9911345929,0.3412128203,0.7108110646,-0.0688713429,0.5644852914,0.4746913181,-0.9285126889,-0.3953508685,-0.6885520099,-0.4488567796,0.5293333121,-0.2859518042,0.2854252996,-0.7458430629,0.6529216931,0.0316264821,-1.0279770513,-0.4959311241,-0.4021299981,0.7412753543,-0.9852936343,0.5362486732,0.3661056348,-0.0984975618,0.4133761495,0.4630187833,-0.1661238918,0.0218175329,-0.6577350302,0.0938315504,0.1597206507,0.7946196665,0.518903152,-0.5968671172,-0.906830141,0.3517304807,-0.2606161332,-0.6981849105,-0.9999083902,-0.9010706064,-0.2415810857,-0.6954766379,0.4531333596,-0.6212961296,-0.2142139694,0.7310479205,-0.0337155816,0.9455476955,-0.8902541675,-0.3636260807,-0.6895846518,-0.3298667145,-0.5573373445,-0.7111422094,0.2202176444,0.0559702441,-0.8130573042,0.7048627557,0.7136233443,0.4905174733,0.5962645993,0.7375790196,0.6414122497,0.7153120493,-0.5848812303,-0.4833849258,0.0151791454,0.3080027851,0.3597489714,0.3840862906,0.2913051573,0.5300721925,-0.4917174129,0.759903635,0.8527581375,-1.0002679923,-0.0113259631,-0.4304430779,-0.1814529433,-0.6691216498,-0.156270045,-0.414475467,0.789673984,0.3171207695,-0.1585260903,-0.6105055085,0.1516252153,0.0844154704,0.9058739471,0.0873472495,-0.7412630648,-0.9294161894,0.5995076162,-0.3761876559,0.7096661799,-0.9311278312,-0.6109933754,-0.1605766669,-0.0613953901,0.5264086424,0.3498277063,0.1286738763,-0.4285190298,0.6676915416,0.6140984856,-0.194758901,0.2594789009,-0.7724981291,0.0857412635,0.8341506286,-0.161922055,-0.1023718667,-0.8725979201,0.8558844075,0.5179265616,-0.5347331303,-0.8591899656,0.3591273003,0.4866601062,0.1474801443,-0.4771863468,-0.1431069093,0.4142715773,0.9877299225,0.3149401766,0.664721125,-0.587934122,-0.4928856947,0.4225798912,-0.2460688784,-0.622686164,0.4806246875,0.1715154948,0.7076167992,0.55286995,-0.3509494432,0.3521521163,0.5357807905,0.2372968767,0.5548558687,-0.4291279253,0.1736322257,-0.8990449139,-0.9536348792,0.5869562986,-0.357113959,-0.1154751926,-0.9342635686,-0.2076350637,0.1236268171,0.13702502,-0.5693976156,-0.6134718143,-0.9601441721,-0.2020868846,-0.9223276847,-0.238765934,0.5271626545,0.3757197321,-0.4379832672,0.027435464,0.3992084595,-0.7664873905,-0.7626031712,0.1956974441,-0.668530916,0.3430139651,0.3077883756,-0.291647826,-0.5738539531,0.5381529184,-0.1270395833,0.51143948,-0.5190834935,-0.306298652,0.7696810586,0.2896920713,0.1040714751,0.0777127966,-0.7072357207,-0.2396209926,0.2659622339,-0.8697556972,0.9725402945,-0.6890263282,-0.1006142685,-0.781789262,0.0775391456,0.6005214624,0.2555690018,-0.7125243732,-0.5420665038,0.3378714825,0.7973117295,0.7340966084,0.1001626383,0.9307646114,-0.5496138911,-0.7187444054,0.623944316,-0.6552801467,-0.8743972557,0.9047375498,0.9059591324,-0.8866994402,0.9293381487,0.8499624709,-0.7823894878,0.6901624885,0.1411009011,-0.642808536,0.0011730681,0.4396810434,0.2505701992,0.9223723411,0.0956048055,-0.7937943321,-0.762934115,-0.6645766744,0.8852530467,-0.039803898,0.7778796567,-0.7199002025,0.1260486372,-0.4145694069,0.0472251911,-0.7690381172,0.8039276088,-0.3958652193,0.5530462541,-0.1736924581,-0.5136998337,0.8679526305,0.8192410441,-0.3576409002,-0.4850768245,0.6392791217,-0.3889133188,0.3307193419,0.0132437143,0.8862211287,0.0864703816,0.8363505178,-0.0187249576,-0.8512286578,-0.0416559292,0.3151037321,-0.4084262562,0.296591284,0.5443526774,0.5957624663,-0.5082635916,0.3986879885,-0.0064535878,0.7293695689,0.4918830495,0.9064198636,-0.026153078,0.7155366725,-0.953650701,-0.7773825901,-0.6605731159,0.5024111301,0.7586703372,-0.709243974,0.6290586658,-0.9386065155,-0.4853382759,0.2978205637,0.341462225,0.8565950773,0.0700267807,0.5746914646,0.5751464249,0.0853104303,0.3010722804,-0.2722243553,0.3707600934,-0.9470814197,0.427718295,-0.903378869,-0.519274579,-0.4867952241,-0.4226395897,-0.6633238381,-0.6381364537,0.8315182466,0.6953724555,0.5051926033,-0.829783192,-0.9953719969,0.7369044333,0.5308544341,0.0747781868,0.7819521244,0.2977991031,-0.1643085832,-0.5931081924,-0.1322094308,-0.4242803141,0.5780293129,0.9171627389,-0.4318031791,-0.3888456553,0.3781142451,0.4524079937,0.2017090876,-0.2129309535,0.4648981594,-0.8131470014,0.0496272864,-0.0301501246,0.7732911185,-0.3988456946,-0.0853265172,0.4772678832,0.9795976335,0.3032718543,-0.0145589016,0.9077693237,-0.6262941332,-0.1979141561,-0.5274634817,0.5958267661,0.39799963,0.3986076398,-0.4282748927,0.5184327493,-0.4235543524,0.4576842113,-0.6059120011,0.4173818146,0.0689384196,0.1235043654,-0.920048982,-0.1318175061,-0.3823266395,0.4992351573,-0.4538394093,-0.5779761922,0.9161395213,0.7490625047,0.2415649841,0.656083361,0.3845133412,-0.5030319064,-0.3108189049,-0.9903609884,0.8936953961,-0.4813171423,-0.2501260404,-0.9549835719,-0.5519194198,0.3030545548,-0.5737014188,-0.5751505476,0.0478334721,0.298862619,-0.086819854,-0.1491916671,-0.6707458864,-0.8935851323,-0.0703301612,-0.5151945719,0.7959453382,-0.5375975541,-0.1729670917,0.2234838525,-0.5171037348,0.5314046863,0.0089810009,-0.0906530179,0.0009738931,0.50824972,0.124824934,-0.0885208763,0.2292373608,-0.0622512571,-0.9347780667,-0.191944775,0.3604957829,0.409790504,-0.0091059375,-0.1819113737,0.0849092895,0.1057790887,-0.5083058299,1.0001817863,-0.5018077545,-0.3156837742,0.3317472487,-0.7474646949,0.7860008503,0.8366705265,-0.4406273579,-0.8462362404,-0.5438921385,0.3250025403,-0.7895986848,-0.4612825855,-0.8355141868,0.0812074726,0.6881059367,0.4260667669,0.2504572446,-0.1965050434,-0.9597897233,0.91081992,0.4638973863,0.2181806319,-0.6819093608,0.0631010241,0.7088398071,0.1676874997,-0.3752647894,-0.1732781861,-0.6496558454,0.8870384766,0.1277384606,-0.643262402,0.9023758407,0.778350238,-0.5238612596,-0.2003184045,0.8934680452,0.1558272719,0.266699555,-0.4798041088,-0.3505006317,0.8683971831,-0.572870984,0.0871879363,-0.6012902098,0.2626045599,-0.6418728681,0.8520742691,-0.3339878382,-0.8151958646,0.9545693553,0.9636807568,0.4842036662,0.9139740377,-0.4996660452,-0.867234322,-0.8928774363,-0.8335311438,-0.2244763874,0.2575277769,-0.07775821,0.9931360334,0.4878589058,-0.6451046804,0.5954919791,0.0611241773,-0.1897510192,-0.1691242504,-0.1056124101,0.264404535,0.3744209629,-0.1319056684,-0.3378203204,0.0758605412,0.8370871484,-0.2210986043,0.6989593949,-0.0363033201,-0.1414509482,-0.6664428361,-0.2381351116,-1.0147518117,-0.1382900981,0.4888917319,0.2712794855,-0.8768723773,0.6728836237,-0.8547983738,-0.2937915709,0.2252423295,-0.9829728676,-0.7463399264,0.1361692362,-1.3379623598,-0.7604483923,-0.2199061151,0.8010649187,1.3491028631,1.0013321101,-0.8743138911,-0.5160308607,0.5128414924,-0.6380664366,0.9096224285,0.1567175995,-0.5468333465,-0.3059795487,0.4980810851,-0.8567861374,-0.1243941285,0.9260045457,0.0811600016,-0.5576382696,0.7668247824,-0.6275604848,-0.3242155112,-0.4149000742,-0.9849796577,0.6515169112,-1.0145523356,0.6597799828,1.0256045149,-0.2181063669,0.5444122096,0.6679915246,-0.6480061202,-0.3740450323,-0.5283485848,0.0326672362,0.3848274389,0.838780161,0.8800867017,0.9608493762,-0.1598660944,0.3873040169,0.1411694855,-0.1892067493,-0.9437521907,-0.5092142055,0.7071201866,0.4979829413,0.435802684,-0.8414677193,-0.2926593614,-0.9900224132,-0.6692737653,0.4761715519,0.1218558533,-0.267700818,-0.4966248436,0.5559016225,-0.3397022341,-0.6215866618,0.1306926284,0.6825440659,0.3996256419,0.8346856369,0.0997858471,0.6976225438,-0.25347955,-0.1867769007,-0.2980658661,0.175310553,-0.7253463163,-0.1503268379,-0.0782156816,0.8209271498,0.6486327046,-1.0381880153,-0.3399897759,-0.4449745731,0.0885730841,-0.0615194302,-0.1871131055,-1.2241284068,0.5199596175,-0.3780749065,-0.4222258869,-0.2364784851,0.0495634937,0.5194712981,0.9776837609,0.0289181537,-0.9521714134,-0.7238680431,0.1050052872,-0.7099625549,0.4204569225,0.3244940649,0.405194676,0.1680347634,-0.1720017871,0.7463847454,-0.0524826353,-1.6375014996,0.3439746657,1.3881329372,0.0116912465,-0.4171410161,-0.8638424182,0.7777437373,-0.3730057613,0.9688178229,0.4050619598,0.1820420691,-0.5047889448,-0.3552678043,-0.5976491054,0.888579236,-0.0757003929,0.1575874608,-0.7346566401,0.0376582126,-0.9230442616,0.5421462373,-0.7296438414,0.7218023325,0.7714901387,0.0983544876,0.9102715614,-0.2041845222,0.2243596665,-0.1077463539,0.8438878253,0.9232231381,-0.06834432,-0.0877358327,-0.5068110857,0.9137817635,0.813780141,-0.2213519221,0.0071438248,-0.8411800611,-0.3507032089,-0.5351778116,0.0348871225,-0.8918265548,0.1931403371,0.3433819615,-0.1045461873,0.7734853832,1.0382000585,-0.7155793811,-0.8246434298,0.6663888178,0.8332040119,0.2436307387,-0.1299862334,-0.6225017383,-0.3904589656,0.1189620473,-0.4128136315,0.767818626,-0.4823843487,0.3239575817,0.7034252032,0.3442799562,0.5397677739,-0.2203815952,-0.2232677718,-0.8100243821,0.8007913964,0.2636338303,0.796535351,0.336540071,0.9443534763,0.703522277,-0.852512525,0.1433443906,-0.9113667372,0.2174106008,-0.6465141212,-0.5195324569,0.8990204516,0.4193063695,-0.5382463939,-0.0532389837,0.8582077665,-0.0617276184,-0.5441951015,0.4448491754,-0.7222733639,0.712442903,-1.0212142748,-0.2713660719,0.1521461679,0.3879736894,0.6507839834,0.368873032,-0.4073553805,0.1110847619,0.0793999845,0.8918881338,-0.1546638272,0.1374477343,-0.4250545566,0.266613256,0.0408610813,0.0938407525,0.518507426,-1.056051089,0.111915903,0.9010499262,0.3607744718,-0.2370584253,-0.580067365,0.231072056,0.8653084119,-0.2710075333,0.3081735377,0.8272441564,-0.6829929692,0.0806849536,0.2399004622,0.7301445827,-0.2619707485,0.797123623,0.0772724345,-0.4586298507,-0.6147806078,0.3795289589,0.1560184001,0.4453272716,0.8755974573,-0.8161213402,0.9362761235,0.5896042852,0.0512017934,0.3522477511,-0.1667259386,-0.1230282373,0.783228612,-0.4488991375,0.4567735845,0.737331596,-0.4305748231,0.2366001762,-0.1688420187,0.0818606288,0.3239151478,-0.374243464,0.3136991065,0.6517651998,0.015844573,0.1703543278,0.1855699662,0.3306330465,0.0161661401,0.453940517,-0.1143738994,-0.6576420392,0.9399127056,0.8877955181,0.5926638179,-0.7466719593,-0.8933969103,-0.4906968259,-0.7627878414,-0.2523204694,-0.254033821,-0.9579032135,-0.0077939085,0.2840749832,-0.7958564825,-0.1309212512,0.7804415785,-0.7399599966,0.6066708898,0.4830168556,-0.2550681476,0.0302731513,0.2163170114,0.9458880671,-0.7951094257,0.0366862687,0.5241562215,0.5731564563,-0.4803688434,0.954302655,0.3664103506,-0.4209463777,0.9322541657,-1.1152092895,0.7921473172,0.0092698338,-0.654844035,0.8112957633,0.9548248352,0.3684964982,0.559916535,-0.0813300803,-0.3180714469,-0.9771297872,0.5461705099,-0.2766017607,0.6969548693,0.7830932674,0.3184939631,-0.7316257353,0.5810165325,0.084066398,-0.625517882,-0.2607430232,-0.0241948283,-0.3908498161,-0.7809442955,1.1027281362,-0.7341108289,-0.510026972,0.6090383458,0.3280009501,-0.4565719375,-0.2406609296,-0.1511847144,-0.2399037274,0.8267111362,-0.2271084231,0.2746286944,0.4857423393,0.4763011385,0.0337279324,0.5770953733,-0.1568625095,0.0288347139,0.6594310473,0.278600979,0.6066702939,-0.8028332928,-0.8223956342,-0.144824331,-0.4784410752,-0.1552261182,-0.4110478895,0.1976462398,-0.4370194134,-0.207106602,-0.1764697823,0.7348763588,-0.1322707573,-0.4497834788,-0.0948572617,0.8740279238,-2.455127224,-0.3553157635,0.64506639,0.1432295269,0.9958216514,-0.4024024164,0.2628499568,-0.5285412888,-1.1241496303,-0.7005140276,0.9781441946,-0.7958956455,0.7163149062,-0.3816700758,-0.4285945026,1.1522478174,-0.363153462,0.0640431591,-0.5842810003,0.2194777497,-0.2240218699,-0.7450170607,0.7372647651,-0.8493184635,0.8472015139,-0.1013927654,-0.1613338417,-0.1009477447,0.4412854586,0.0975705043,0.2753312295,0.8632787769,-0.0938402394,-0.8038494225,-0.9188332365,-0.5547319222,-0.7059750155,0.7383707022,0.4941954852,-0.9385330705,-0.2825992592,0.5186504143,0.9217322444,0.7114609965,-0.0058962128,0.4536352186,-0.3970977461,-0.452971035,-0.9126451602,-0.744765778,0.4483041819,0.3122467483,-0.4729430421,0.0333439948,-0.3208431657,-0.4917766724,-0.2009830015,-0.9488547491,0.3665265661,-0.0875831591,0.9246255535,-0.7311369063,-0.1447628487,0.963507181,-0.2722369936,-0.7292813447,0.2901269625,0.4375012682,-0.500365034,0.8953204311,0.263348623,0.3314129551,-0.3801548737,-0.9904736101,-0.608520696,0.5990265806,0.5198462537,-0.3491105488,-0.5725516346,-1.0028594426,-0.9081522757,0.8347028339,-0.209305715,0.7788172307,-0.8631197215,-0.6837983572,-0.2695997113,0.443460888,0.9167135714,-0.6338324317,0.6527621972,-0.808997591,0.012531315,0.8822661505,0.9314620817,0.7585113161,0.6256039147,0.6110485859,-0.2716091654,0.2962905435,0.1648542916,-0.2467604424,-0.7314364074,0.431691316,-0.4143439878,0.3878166381,-0.6996398791,0.9667471355,-0.7235247939
   0.1978076347,-1.0415655987,-0.2427619763,-0.1769602023,0.5296845801,0.2656523705,-0.1399127668,-0.0457550466,-0.213520148,-0.6030614573,0.6868492578,0.2467413669,-0.5385616294,-0.6888914107,0.6649700037,0.7491757675,0.5873910087,-0.3220492639,0.811341182,0.6001908641,0.4526007005,-0.4555164208,0.6391243358,-0.6510187141,-0.3416491644,0.3801845482,0.3623475636,0.320086823,-0.246983887,0.2167159451,-0.7107345139,0.1765771355,0.8484053562,-0.9061438565,0.454111274,-0.8983071724,-0.4828111403,0.7370202995,0.5588152513,0.1748036281,0.2098037746,-0.6066733737,0.7721467874,-0.2708634546,-0.5546817907,0.1479916924,-0.5036853287,0.630841743,-0.9088415432,-0.4926473377,-0.5058949264,-0.0737598442,-0.3414093449,0.6517221678,-0.8203810463,-0.7983053091,0.3107597622,0.4108083353,0.3102360453,-0.1024328045,0.5157633075,0.5253358663,-0.4072266447,0.7834203079,0.6107647123,-0.9365746562,0.2339439168,-0.3237962123,0.0605460397,0.1098007367,-0.1307270865,0.6318944321,-0.7691685282,-0.173880494,0.0186523139,0.3493325052,-0.8421719816,-0.7308789897,0.8173888246,-0.7094327122,-0.4185500447,-0.1555692849,-0.6724203607,-0.2328592096,0.5657654267,0.7107131074,0.8891803677,-0.6093277527,0.1784932523,-0.2015668495,-0.6444819865,0.3406549642,-0.6930603116,0.5247845404,0.6555177549,0.8488439693,0.1414998697,0.2423030968,0.8625271282,0.6919832744,0.887608817,-0.3014442864,0.0848325075,-0.1862913019,0.4670753313,-0.7120113797,0.8209399373,1.1367942496,0.9883398249,0.3135146956,0.6673357948,0.0762866875,0.5112670294,0.5420531173,0.3423273958,-0.2694240068,0.2633660416,-0.1324872071,-0.622040377,0.2454841366,0.0623534098,0.3704893793,0.4970056343,0.5864659128,-0.8327291948,0.2993950949,0.2185126164,0.2525504719,0.7653743023,-0.9455007907,0.3894380861,0.8423366587,0.3409130279,0.8341720418,0.2561699929,0.4779885312,0.4331911682,0.356615937,0.8960358882,-0.2360440667,0.7189575908,0.5398440618,-0.0843164287,0.1886038123,-0.837619091,-0.3542283275,1.1505780006,0.2546496206,-0.7963984461,-0.989509465,-0.6397510375,0.3714583196,-0.6260216635,-0.2329591184,0.8231071394,-0.4987288886,0.471746455,-0.1498301773,-0.2037313748,-0.3136891988,-0.1246835835,-0.5971728448,0.5828490233,0.4469388414,0.5272766478,0.869686001,-0.5080544566,0.1528643545,-0.3500638314,-0.5378226915,-0.6592746047,0.7893911131,0.6028597164,0.3525551175,-0.8789041207,-0.1021320686,-0.6824185056,-0.692383379,0.0015917693,0.6448890829,0.604717103,-0.3989210899,-0.1381520189,0.7173111594,-0.2090201701,-0.0761603512,-0.3077276633,0.2526768902,-0.4340717141,0.5640727803,0.5868302477,-0.3048325936,-0.9839229638,0.4921718845,-0.223927619,-0.3089501458,0.6662478676,-0.7739149363,0.040973837,-0.9522209468,0.4167771408,0.7368831562,0.5087354194,-0.2010017392,1.0493818948,0.235950485,-0.9579707629,-0.8690831319,0.2084669311,0.2039755032,-0.7000293506,0.1165824154,0.22241855,0.4240630342,-0.0980734395,-0.3974589381,0.7285329457,0.579953184,-0.5390541584,-0.1104623323,0.3865860164,0.5945135598,-0.7778937207,-0.723694121,0.9655992966,0.3170671338,-0.9531955906,0.7135031192,0.5864619259,-0.0423432015,-0.5769617282,0.0858193285,0.8804654279,-0.6851507104,0.5887944749,0.0239613094,-0.7353773802,1.0121366256,0.4878793315,0.6044313685,0.5864287849,0.0622781704,0.6113248148,-0.7624488637,0.2423178918,0.7704558879,1.1005173525,0.927892137,-0.6620684564,-0.0784791296,-0.5785890197,-0.2999927002,0.9142052379,0.8255586102,0.1067778611,0.733874946,0.985322463,-0.1036417401,-0.709330824,-0.7055016092,-0.8063186996,0.9636959959,0.9994696026,0.7828116499,0.3865061065,-0.7695835881,0.0065390204,-0.1604907543,0.4073096582,0.5658800328,-0.8335798475,-0.6347657641,0.903157474,-0.4369769108,-0.6607793717,-0.219542358,-0.7206799095,0.6261645217,0.0691260357,-0.7039978009,-0.043132269,0.2675012345,0.3097050963,0.5308373663,0.8296449287,-0.6499401913,0.2526469874,0.6765379362,0.3088268435,-0.7742880814,0.0795611008,-0.1462657956,-0.0889952412,-0.6481647787,0.2765083785,-0.4539487461,-0.01565882,-0.7324471434,-0.3607435944,-0.0008266838,-0.6117234319,0.2162181446,-0.8972469887,0.2645184364,-0.4590876834,-0.760739831,0.6898802799,-0.8423453954,0.1737628993,0.6150346134,-0.4284363402,-0.887915174,0.5825648192,-0.4310134281,0.0773402553,0.8081697078,-0.7346628662,0.2796727733,-0.9702082692,0.6149073559,0.0109756268,0.3672802434,0.6285535975,-0.0052488623,-0.296411583,0.8163971971,0.1182541355,0.1228665219,-0.9303974211,-0.5922459624,-0.7853824049,-0.8310524489,0.2734162493,0.7836660073,-0.5595208776,-0.6146898868,-0.7171337511,0.3461944251,0.1871449332,0.7393353566,-0.8128910997,-0.3302422642,-0.2219943906,0.7019326339,-0.3070490022,-0.9400150008,-0.6502815783,-0.0720826277,0.0066089917,0.5801578371,0.3187213008,0.4094722524,0.6564597584,-0.6090919419,-0.6203124661,-0.1876472725,-0.7535293983,-0.2368753872,0.0263255517,-0.1409204437,0.9451154723,-0.7924338112,-0.6312970616,0.361937098,-0.4450492068,0.5782767923,0.6188011438,0.5149825098,0.5746148745,0.3904060596,-0.3582775299,0.8951344586,-0.3621020216,-0.0741422513,-0.6436979857,-0.3607327872,-0.4981048416,-0.6717074569,0.5736958202,0.3847688746,-0.6165923955,-0.7057287491,-0.7375964954,-0.828965333,-0.9125127339,0.6740055658,0.2898569146,-0.0552076986,1.0996400835,0.318967515,0.8090566982,0.8213340614,-0.6687737831,0.0269355179,0.4075592362,-0.033390631,0.4316030268,-0.1895194184,0.5430397186,-0.5143678729,0.0292226925,-0.6594707533,0.8531238186,-0.9423441829,-0.0247164585,0.1902368613,-0.7396822209,0.3676337667,-0.2683692315,0.4860067276,-0.7362458211,0.6556402146,-0.5369629262,-0.4996120502,0.0122199653,-0.4877903441,0.5485153959,0.2180029509,-0.9033066086,-0.5856217114,0.9733086302,0.6083890338,-0.4240487259,0.907937545,-0.7016029094,-0.104294866,-0.0459186117,0.0013001285,0.0797968481,-0.0741814847,0.8808248981,-1.3697437203,-0.2164473963,0.500166376,-0.9766405574,-0.4554146814,-0.5245097889,-0.4432255241,0.9127360785,-0.8510136348,0.1404639226,-0.497757881,-0.5866427519,0.1890782671,0.8232662096,0.0568882278,-0.0061364143,0.6565116676,0.6706164404,0.8269368998,0.7082437451,-0.6188749695,-0.7583252234,-0.5812723855,0.8338155669,-0.1888292782,1.0490858379,-0.702300594,0.5731007987,0.9014348612,-0.4504054269,-0.1077716302,-0.6409571213,0.8027416028,-0.595308742,-0.4343019277,-0.8032665457,-0.5089089458,-0.1548620733,-0.3857893544,-0.9886722891,0.055630154,0.1799378834,0.9865491222,-0.4265602392,-0.4212387709,0.0931424428,0.070675346,-0.589559711,0.1867539937,-0.5333195989,-0.0721582746,-0.6149724096,0.8856076278,0.553410717,-0.3923845956,0.6723501405,0.127235106,-0.6344259299,-0.5091238981,-0.2992872535,-0.5222647072,0.1537037189,0.4239774314,-0.8133247397,-0.4661155548,0.4282748212,0.480312018,-0.1758756044,-0.0784976908,0.9245535339,-0.7839492858,0.8910983993,-0.7046048697,-0.9356577212,-0.9211064384,-0.3241480061,-0.7557581585,-0.7516056985,0.1815674596,0.562520536,-0.527375085,0.2571812176,-0.5565322435,-0.0332458798,0.6354372063,-0.5310581887,-0.6599059235,0.2692714145,0.9830424946,-0.3942507946,-0.7307700641,-0.5315849082,-0.372029725,-0.5366712734,0.1722816343,0.953958225,0.2320286045,0.2779723287,-0.282249224,0.9504382498,0.197224102,-0.8898960405,0.5585140533,0.4577485274,0.0465669032,-1.7124395509,0.2172359738,0.575606362,0.1764269383,0.3356477738,-0.6184013785,-0.5790656036,-0.7633751034,-0.9227845758,-0.2928403566,-0.3157283652,-0.1207950658,-0.0176673599,-0.5232810081,-0.135153421,0.9597768256,-0.1611484062,-0.0247503891,0.0126057697,0.3694413671,-0.5231721668,-0.4841285211,0.9453445115,-0.5657702572,-0.6524423791,0.5179783915,-0.9694353689,-0.2474354212,0.7816943152,0.5268109953,-0.5280915845,-0.6676548209,-0.1696610924,0.5362713292,-0.2700855706,-0.8472376987,0.939736487,-0.3487020434,-1.091839185,-0.1569379458,1.3800977745,1.0987384464,-0.7023822719,0.7306567529,-0.3187168625,0.5962480636,0.0986523134,0.6525298292,0.4021083704,-0.3950835943,0.7042542776,0.3371073829,-0.3760055156,0.4921282123,-0.7475234596,0.9146996367,-0.6127754113,-0.8026760583,-0.3561461,0.1618319674,0.1657368889,0.733194331,-0.7944076783,-0.168583886,-0.5846842236,0.7304878026,-0.2958484757,0.6266452781,-0.2545742831,-1.0391731369,-0.2922983783,-0.6117665091,0.5828457961,-0.821175035,0.0498666232,-0.021223347,-0.9197634937,-0.6949144232,0.4393970439,0.3633371211,-0.3990283795,0.3362273712,-0.8832459518,-0.8738778767,0.4281270072,-0.4004164948,0.6817403796,-0.1807886904,-0.3890739614,-0.3174937396,-0.978115639,-0.0364494988,-0.7192304977,-0.0852776409,-1.041431485,-0.0897613585,-0.6170853836,0.7476138353,0.115561082,-0.2794954134,0.2867175432,0.0462615166,-0.4202490441,0.3488748355,-0.0539571288,-0.1346430975,0.2629096924,0.1170857099,0.1337697442,-1.1139568082,-1.075706743,0.6610888748,0.4931863487,0.4146989431,0.0168787624,0.4453182912,-0.0361468078,-0.0615366443,-0.4680074962,-0.0505463051,0.8206291148,-0.0815039701,0.6284069348,0.3681916987,-0.5015887195,0.8043155554,-0.7619288242,0.8393619272,-0.9445064084,0.080106942,0.4947780964,-0.5580718081,-0.1262158196,0.838474329,0.3677318495,0.0468197996,-0.8641734846,-0.6329694486,0.5606987026,0.4771980996,0.964372932,0.0723396516,-0.5585876226,0.4973954523,-0.8278945648,-0.5891242818,1.0049814782,0.9573582849,0.5094291355,-0.6045210908,-0.4169019238,0.003612515,0.5055407114,0.3889508465,-0.2274586282,-0.6249443267,-0.3909982202,0.9476545345,-0.001732402,-0.4962678336,0.5362247628,-0.6697905417,0.3564611782,0.2873696023,-0.6004249413,0.293518008,-0.5030867529,0.5031154182,-0.3060957765,-0.5163030108,-0.3604163475,0.0246920953,-0.3630083227,-0.0384521969,-0.3108511302,0.2666570411,0.8984160649,0.9553448665,0.149171089,-0.3562435814,0.4018200954,0.6659993972,0.097625491,0.3392444888,-0.4495643319,-0.260598278,0.9314220701,0.9405923136,-0.0899483324,0.3969628756,-0.3469541218,0.5636314689,-0.2763646871,-0.8278323346,0.9520605227,-0.1678553727,-0.7286374097,-0.5555222892,0.4478029421,0.0954205622,0.241180701,-0.7338086782,0.6371509943,0.9218723853,0.891164874,0.2712453193,0.3247221807,-0.375601689,-0.5924375686,-0.9224442672,-0.6523359153,-0.35316027,-0.4345226949,0.3295665974,0.8416907594,0.2127677304,-0.8776556596,-0.6566788851,-0.9612750101,0.1555886877,0.0372012823,-0.3492614375,1.0041945333,-0.6624069306,-0.0222754257,0.772985104,-0.4131584549,-0.791799376,0.0948877058,0.4289757561,-0.5690989545,-0.0230100038,0.8397240402,0.2137643587,-0.4488258306,-0.3531797605,-0.2146918639,0.3452589403,-0.7562876128,-0.7371354134,-0.8221627795,0.0650845961,0.3945555141,0.0622012583,-0.1131933678,-0.3223231095,-0.0700292546,0.6293934918,0.1210159606,0.4994636083,0.8124700882,0.2610558261,0.2877610163,-0.7960540507,0.8449818835,0.856140014,-0.9631796024,0.2228258573,0.5369861534,0.0752562399,0.4584777013,-0.1520695443,-0.0354508201,-0.5800184181,-0.8852148999,0.4300475789,-0.3837852769,0.4096283731,-0.2832875707,-0.6629412697,-0.5204964104,0.3750037536,-0.6480987611,0.4789530952,-0.0860466858,-0.1836376776,-0.0899861109,-0.2145690438,-0.7929269311,0.53142045,-0.8813205179,0.3429398551,-0.8368963946,-0.8138597915,0.5681811683,0.103030641,-0.4335290578,0.9440465897,-0.5197738345,-0.1636098548,-0.884142354,0.0606724025,0.9173224758,0.1289214157,0.618269485,-0.9490922286,0.1883581583,0.6623620621,-0.5507978153,-0.8705020197,-0.4777253404,-0.8810023229,-1.0662585099,-0.3695833715,0.5454688607,0.0860665863,0.5242774719,-0.9368994948,-0.2123763158,-0.9270523277,-0.2130402202,0.7447815315,-0.8101141112,0.445934714,0.667331048,-0.1762357736,-0.151938569,0.9402130075,0.3868656847,-0.3936726102,0.8257844405,0.6771291769,-0.6562410238,0.1208406697,-0.463635347,-0.3455423357,0.916183479,-0.2836340081,-0.6856616699,-0.9675743163,-0.5745120216,-0.6974583639,0.7296583986,0.7601437564,0.4502662814,-0.2164351061,-0.6858314352,0.8080410599,-0.3626867606,0.1481452889,0.01478405,0.2778198249,-0.4196700207,0.8406172199,-0.5318515812,-0.3906345424,-0.7342645762,-0.0815714359,-0.8907665064,0.8693045951,-0.9512067067,-0.3731303988,-0.0086434776,0.7031781861,0.6883031775,0.5753615885,0.7711254545,-0.3593620289,-0.5453494878,0.9527797006,-0.948448946,1.0239465761,0.7786363892,-0.6845368914,-0.6124408007,-0.6014065902,0.4250934081,-0.5875482103,-0.8301218131,-0.3765919436,-0.8266574357,-0.665093578,0.1307581273,0.4331819181,0.9285915662,-0.795294574,-0.6526462455,0.8258288865,0.6969375176,-0.5606368401,-0.7729796118,-0.7487766402,0.3532251436,-0.4895282509,-0.2742472275,-0.9167470654,-0.9791732224,0.0737765995,-0.2465274987,-0.1098030116,-0.1084967524,-0.9625926424,-0.8877453437,0.8897242695,0.140942095,-0.5279775437,0.879430368,-0.3193081175,-0.0769232082,0.0426869863,-0.7877396984,-0.7201273511,0.0650691197,-0.7766653816,-0.8980433929,0.4683752906,0.0126099523,0.1519802448,-0.4112238942,-0.8224288587,0.1349070069,0.0199657048,-0.5857869579,-0.9960558965,-0.2508502036,-0.0698540251,0.9187173154,0.7952331503,-0.2219857428,-0.8984244518,-0.4208170992,-0.2649537959,0.789946375,-0.4664984904,-0.7301047032,0.2127446358,-0.469892068,0.5970495736,0.2439026364,-0.0138606464,-0.8881871113,-0.1653225153,0.432683566,0.1515182482,-0.0651258542,0.4522934304,0.9703876957,-0.8478692903,0.9203929065,-0.2416212334,0.9493035755,0.9918815096,0.4907998315,0.2960025437,0.1491801248,0.8898292058,-0.4830184179,0.0795719328,-0.3192468559,-0.5053699825,0.2610655622,-0.7545897262,0.325885151,0.1122198392,0.6657768801,0.3435119014,0.2398376315,0.1055048293,0.8967410862,0.2722338487,-0.438424795,0.7333203029,-0.7348601933,-0.7601006869,-0.469202432,0.2804206265,0.0674312263,-0.9211855586,0.2228474941,-0.4836584782,-0.7468717894,0.403883786,0.1336530883,-1.0551806068,-0.8378732396,0.8625729817,-0.310036618,-0.8852312778,-0.4790380033,-0.5340220973,-0.2995404349,0.1396491287,-0.4171973622,-0.7842355451,0.5884791272,0.3804440239,0.9894084276,-0.7355861664,0.8523433993,0.4920561884
##end
biasActivation=0,1,1
[BASIC:ACTIVATION]
"org.encog.engine.network.activation.ActivationLinear"
"org.encog.engine.network.activation.ActivationLinear"
"org.encog.engine.network.activation.ActivationLinear"
